/*!
 * The following copyright notice may not be removed under any circumstances.
 * 
 * Copyright:
 * (C)1992 The Font Company Inc., ALL Rights Reserved
 */
Cufon.registerFont({"w":500,"face":{"font-family":"AvantGarde","font-weight":600,"font-stretch":"normal","units-per-em":"1000","panose-1":"2 0 7 3 0 0 0 0 0 0","ascent":"800","descent":"-200","x-height":"16","bbox":"-3 -772 810 203","underline-thickness":"20","underline-position":"-120","stemh":"110","stemv":"120","unicode-range":"U+0020-U+007E"},"glyphs":{" ":{"w":254},"!":{"d":"65,0r0,-114r120,0r0,114r-120,0xm65,-169r0,-497r120,0r0,497r-120,0","w":250},"\"":{"d":"328,-390r-60,0r-22,-276r103,0xm176,-390r-60,0r-22,-276r103,0","w":444},"#":{"d":"344,-392r-106,0r-16,105r106,0xm496,-287r-1,72r-105,0r-34,215r-73,0r33,-215r-105,0r-35,215r-72,0r33,-215r-104,0r1,-72r115,0r16,-105r-103,0r0,-72r115,0r31,-202r73,0r-32,202r106,0r32,-202r73,0r-31,202r93,0r-1,72r-103,0r-17,105r95,0","w":554},"$":{"d":"199,-41v-90,-20,-150,-90,-149,-183r119,0v2,46,35,77,80,77v45,0,80,-33,80,-77v0,-51,-48,-74,-100,-87v-86,-22,-154,-76,-154,-179v0,-82,47,-145,124,-166r0,-116r113,0r0,117v67,23,109,79,116,155r-112,0v-14,-79,-117,-67,-121,7v-3,49,66,70,113,84v95,28,141,90,141,185v0,90,-53,160,-137,183r0,119r-113,0r0,-119"},"%":{"d":"267,-514v0,-38,-31,-69,-69,-69v-38,0,-68,31,-68,69v0,38,31,69,69,69v37,0,68,-31,68,-69xm678,-152v0,-38,-30,-69,-68,-69v-38,0,-69,31,-69,68v0,38,31,70,69,70v38,0,68,-31,68,-69xm364,-514v0,92,-74,166,-165,166v-92,0,-166,-75,-166,-167v0,-91,74,-165,165,-165v92,0,166,74,166,166xm776,-152v0,92,-74,165,-166,165v-91,0,-166,-74,-166,-166v0,-91,74,-165,166,-165v91,0,166,74,166,166xm290,0r-72,0r300,-666r72,0","w":809},"&":{"d":"232,-290v-56,25,-82,56,-82,98v0,51,39,89,92,89v38,0,64,-21,93,-74xm260,-434v53,-27,67,-43,67,-76v0,-34,-22,-56,-57,-56v-32,0,-56,24,-56,55v0,24,11,42,46,77xm30,-197v1,-89,54,-152,126,-189v-46,-53,-57,-76,-57,-121v0,-99,73,-173,170,-173v97,0,172,72,172,165v0,72,-33,123,-105,164r61,69r65,-111r133,0r-114,202r118,128r-88,76r-91,-99v-52,69,-104,99,-170,99v-121,0,-220,-94,-220,-210","w":616},"'":{"d":"141,-390r-60,0r-22,-276r103,0","w":222},"(":{"d":"315,11r0,130v-80,-27,-114,-68,-159,-127v-173,-227,-78,-609,159,-694r0,129v-81,67,-126,167,-126,282v0,114,51,228,126,280","w":348},")":{"d":"33,-550r0,-130v79,27,114,68,159,127v173,228,77,608,-159,694r0,-129v80,-66,125,-166,125,-281v0,-114,-51,-228,-125,-281","w":348},"*":{"d":"223,-551r-3,-115r72,0r-4,115r109,-39r22,68r-110,33r70,91r-58,42r-65,-95r-65,95r-58,-42r70,-91r-110,-33r22,-68","w":512},"+":{"d":"8,-381r201,0r0,-190r82,0r0,189r200,0r0,82r-200,0r0,189r-81,0r0,-189r-202,0r0,-81"},",":{"d":"65,0r0,-120r120,0r0,126v-1,74,-47,122,-119,120r0,-60v43,-9,56,-26,51,-66r-52,0","w":249},"-":{"d":"0,-206r0,-107r250,0r0,107r-250,0","w":249},".":{"d":"64,0r0,-120r120,0r0,120r-120,0","w":249},"\/":{"d":"23,115r291,-781r85,0r-291,781r-85,0","w":423},"0":{"d":"146,-453r0,234v0,72,40,120,103,120v62,0,105,-48,105,-118r0,-241v0,-60,-47,-108,-104,-108v-60,0,-104,48,-104,113xm474,-455r0,245v0,131,-92,223,-222,223v-136,0,-226,-91,-226,-229r0,-239v0,-132,92,-225,224,-225v131,0,224,94,224,225"},"1":{"d":"222,0r0,-553r-84,0r0,-113r204,0r0,666r-120,0"},"2":{"d":"38,0r0,-113r237,-222v52,-48,74,-87,74,-131v0,-59,-40,-100,-97,-100v-66,0,-100,43,-101,129r-120,0v-11,-140,89,-243,218,-243v123,0,220,97,220,220v0,91,-76,179,-128,226r-136,121r264,0r0,113r-431,0"},"3":{"d":"361,-382v68,25,106,87,106,173v0,126,-100,222,-229,222v-123,0,-218,-90,-225,-214r121,0v5,58,51,102,106,102v59,0,107,-50,107,-109v0,-74,-60,-116,-152,-111r0,-113v61,5,105,-20,104,-71v0,-37,-26,-63,-63,-63v-33,0,-50,19,-55,61r-120,0v1,-104,80,-169,177,-175v149,-9,250,209,123,298"},"4":{"d":"287,-213r0,-251r-159,251r159,0xm0,-197r306,-469r101,0r0,453r71,0r0,113r-70,0r0,100r-120,0r0,-100r-288,0r0,-97"},"5":{"d":"40,-317r63,-349r302,0r0,113r-212,0r-21,123v151,-68,298,56,298,211v0,130,-103,232,-231,232v-120,0,-223,-94,-229,-211r120,0v12,62,51,99,106,99v64,0,114,-52,114,-119v0,-64,-51,-118,-113,-118v-36,0,-61,14,-90,48"},"6":{"d":"138,-218v0,66,49,119,111,119v62,0,112,-52,112,-116v0,-64,-51,-117,-113,-117v-61,0,-110,51,-110,114xm258,-666r141,0r-148,226v133,-21,230,85,230,214v0,134,-102,239,-231,239v-130,0,-232,-103,-232,-236v0,-48,16,-103,43,-144"},"7":{"d":"77,0r249,-553r-267,0r0,-113r392,0r0,113r-241,553r-133,0"},"8":{"d":"147,-203v0,57,46,103,103,103v56,0,102,-46,102,-103v0,-56,-46,-103,-102,-103v-57,0,-103,47,-103,103xm181,-495v0,40,31,72,70,72v39,0,70,-32,70,-72v0,-39,-31,-71,-70,-71v-39,0,-70,32,-70,71xm126,-371v-127,-106,-30,-309,123,-309v103,0,186,82,186,183v0,53,-18,90,-60,126v67,39,97,90,97,166v0,121,-100,218,-223,218v-123,0,-222,-97,-222,-220v0,-74,36,-134,99,-164"},"9":{"d":"139,-436v0,58,52,103,111,103v61,0,110,-51,110,-113v0,-66,-50,-120,-113,-120v-60,0,-108,58,-108,130xm100,0r147,-224v-137,12,-228,-86,-228,-217v0,-135,99,-239,229,-239v131,0,232,101,232,232v0,59,-17,110,-58,172r-181,276r-141,0"},":":{"d":"64,-380r0,-120r120,0r0,120r-120,0xm64,0r0,-120r120,0r0,120r-120,0","w":249},";":{"d":"65,-380r0,-120r120,0r0,120r-120,0xm65,0r0,-120r120,0r0,126v-1,74,-47,122,-119,120r0,-60v43,-9,56,-26,51,-66r-52,0","w":249},"<":{"d":"491,-588r0,88r-377,165r377,152r0,89r-483,-195r0,-90"},"=":{"d":"8,-304r483,0r0,82r-483,0r0,-82xm8,-458r483,0r0,81r-483,0r0,-81"},">":{"d":"8,-94r0,-89r377,-164r-377,-152r0,-89r483,195r0,90"},"?":{"d":"169,0r0,-120r120,0r0,120r-120,0xm28,-471v3,-130,95,-209,208,-209v112,0,201,94,201,209v0,58,-26,102,-91,160v-55,49,-61,71,-57,143r-119,0v-14,-107,38,-181,108,-230v65,-46,44,-162,-45,-162v-52,0,-75,24,-85,89r-120,0","w":499},"@":{"d":"326,-214v58,0,99,-53,99,-127v0,-54,-30,-88,-78,-88v-59,0,-105,54,-105,123v0,54,34,92,84,92xm357,-43v96,0,144,-29,203,-89r72,0v-76,99,-136,143,-281,143v-206,0,-354,-143,-354,-341v0,-199,150,-348,354,-348v185,0,321,120,321,285v0,133,-86,259,-224,259v-33,0,-51,-19,-51,-52v-25,31,-60,48,-99,48v-86,0,-145,-67,-145,-163v0,-118,80,-209,184,-209v52,0,89,21,112,64r11,-52r71,0r-49,287v-1,11,5,17,14,17v55,0,124,-106,124,-184v0,-142,-111,-245,-265,-245v-163,0,-289,127,-289,291v0,164,126,289,291,289","w":683},"A":{"d":"260,-287r143,0r-71,-205xm6,0r277,-666r97,0r279,666r-136,0r-71,-172r-236,0r-74,172r-136,0","w":665},"B":{"d":"188,-407v78,4,147,-9,147,-72v0,-63,-71,-78,-147,-72r0,144xm188,-115v94,6,187,-8,187,-87v0,-78,-92,-96,-187,-89r0,176xm498,-198v0,126,-99,198,-255,198r-178,0r0,-666r132,0v115,0,160,11,204,51v77,67,80,203,-17,252v74,25,114,75,114,165","w":532},"C":{"d":"553,-476v-48,-56,-96,-88,-180,-88v-117,0,-217,106,-217,230v0,125,103,233,222,233v64,0,111,-24,168,-84r143,0v-51,119,-175,198,-308,198v-191,0,-348,-157,-348,-348v0,-189,156,-345,344,-345v137,0,270,86,316,204r-140,0","w":716},"D":{"d":"476,-330v0,-149,-109,-235,-288,-221r0,436v186,13,288,-69,288,-215xm600,-331v0,204,-141,343,-381,331r-154,0r0,-666r151,0v247,-9,384,123,384,335","w":633},"E":{"d":"65,0r0,-666r359,0r0,115r-235,0r0,162r225,0r0,115r-225,0r0,158r235,0r0,116r-359,0","w":468},"F":{"d":"65,0r0,-666r339,0r0,115r-216,0r0,162r206,0r0,115r-206,0r0,274r-123,0","w":438},"G":{"d":"310,-224r0,-115r434,0v6,199,-155,352,-353,352v-198,0,-358,-154,-358,-345v0,-191,160,-348,355,-348v141,0,280,90,323,209r-147,0v-39,-58,-106,-93,-178,-93v-129,0,-230,102,-230,232v0,130,103,231,236,231v84,0,159,-47,197,-123r-279,0","w":772},"H":{"d":"65,0r0,-666r123,0r0,271r239,0r0,-271r123,0r0,666r-123,0r0,-280r-238,0r0,280r-124,0","w":616},"I":{"d":"65,0r0,-666r123,0r0,666r-123,0","w":254},"J":{"d":"249,-666r124,0r0,476v0,126,-70,203,-182,203v-96,0,-181,-59,-184,-169r123,0v8,36,28,55,59,55v38,0,60,-30,60,-80r0,-485","w":436},"K":{"d":"65,0r0,-666r123,0r0,288r210,-288r146,0r-252,327r252,339r-145,0r-211,-292r0,292r-123,0","w":558},"L":{"d":"65,0r0,-666r123,0r0,551r204,0r0,115r-327,0","w":408},"M":{"d":"65,0r0,-666r171,0r178,505r177,-505r171,0r0,666r-123,0r0,-500r-174,500r-104,0r-173,-500r0,500r-123,0","w":827},"N":{"d":"65,0r0,-666r140,0r278,485r0,-485r123,0r0,666r-138,0r-280,-484r0,484r-123,0","w":672},"O":{"d":"156,-332v0,128,101,230,225,230v125,0,227,-103,227,-230v0,-128,-102,-232,-227,-232v-124,0,-225,104,-225,232xm33,-331v0,-193,156,-349,348,-349v193,0,349,156,349,347v0,192,-156,346,-349,346v-192,0,-348,-154,-348,-344","w":763},"P":{"d":"188,-369v102,5,189,-16,180,-94v9,-77,-79,-93,-180,-88r0,182xm65,0r0,-666r168,0v111,0,147,12,195,53v107,91,66,302,-56,343v-28,19,-105,16,-183,16r0,254r-124,0","w":501},"Q":{"d":"158,-301v155,-45,306,31,405,118v40,-48,56,-90,56,-149v0,-128,-104,-232,-232,-232v-134,0,-252,117,-229,263xm197,-204v49,65,94,103,191,103v38,0,60,-6,88,-23v-87,-61,-154,-104,-279,-80xm742,-335v-1,98,-29,160,-80,219v30,15,56,21,92,17r0,112v-72,2,-110,-11,-174,-53v-47,33,-121,53,-190,53v-200,0,-357,-153,-357,-347v0,-193,155,-346,352,-346v197,0,357,155,357,345","w":772},"R":{"d":"188,-348r79,0v74,0,119,-38,119,-102v0,-62,-46,-101,-118,-101r-80,0r0,203xm510,-460v0,114,-64,193,-175,214r181,246r-149,0r-179,-254r0,254r-123,0r0,-666r204,0v147,-7,241,79,241,206","w":525},"S":{"d":"12,-191r129,0v2,55,38,90,92,90v52,0,90,-35,90,-84v0,-48,-24,-73,-91,-98v-96,-35,-111,-43,-140,-71v-35,-35,-56,-86,-56,-136v0,-104,89,-190,196,-190v108,0,192,81,197,190r-127,0v-4,-46,-32,-74,-74,-74v-42,0,-69,26,-69,67v0,44,20,64,112,93v107,34,175,92,175,202v0,120,-96,215,-217,215v-119,0,-211,-86,-217,-204","w":466},"T":{"d":"129,0r0,-551r-123,0r0,-115r371,0r0,115r-124,0r0,551r-124,0","w":383},"U":{"d":"302,13v-139,0,-239,-89,-239,-256r0,-423r123,0r0,423v0,94,38,142,115,142v77,0,115,-47,115,-142r0,-423r124,0r0,423v8,162,-97,256,-238,256","w":603},"V":{"d":"266,0r-259,-666r130,0r179,507r180,-507r130,0r-258,666r-102,0","w":633},"W":{"d":"200,0r-194,-666r126,0r116,466r115,-466r91,0r112,466r117,-466r127,0r-194,666r-98,0r-109,-440r-111,440r-98,0","w":816},"X":{"d":"4,0r229,-332r-229,-334r146,0r156,232r160,-232r143,0r-231,334r231,332r-143,0r-160,-230r-156,230r-146,0","w":613},"Y":{"d":"221,0r0,-246r-219,-420r135,0r145,306r146,-306r136,0r-220,420r0,246r-123,0","w":566},"Z":{"d":"16,-101r256,-450r-241,0r0,-115r385,0r0,107r-253,444r270,0r0,115r-417,0r0,-101","w":450},"[":{"d":"289,-680r0,132v-111,33,-74,262,-74,407v0,85,21,128,74,150r0,132v-89,-16,-137,-71,-170,-141v-45,-95,-27,-268,-27,-405v0,-147,67,-242,197,-275","w":348},"\\":{"d":"399,115r-85,0r-291,-781r85,0","w":423},"]":{"d":"59,141r0,-132v110,-32,73,-262,73,-406v0,-85,-21,-128,-73,-151r0,-132v88,17,137,70,169,141v44,97,27,267,27,405v0,148,-67,241,-196,275","w":348},"^":{"d":"101,-373r-90,0r192,-293r93,0r193,293r-90,0r-150,-220"},"_":{"d":"500,71r0,96r-500,0r0,-96r500,0"},"`":{"d":"66,-679r52,-92r200,121r-48,84","w":384},"a":{"d":"448,-251v0,-90,-63,-155,-147,-155v-84,0,-148,69,-148,159v0,87,65,155,148,155v85,0,147,-67,147,-159xm561,-500r0,500r-110,0r0,-61v-38,44,-113,77,-175,77v-140,0,-243,-113,-243,-268v0,-150,108,-264,250,-264v63,0,131,32,168,80r0,-64r110,0","w":620},"b":{"d":"171,-254v0,92,65,161,151,161v83,0,144,-66,144,-157v0,-90,-63,-156,-146,-156v-83,0,-149,67,-149,152xm58,0r0,-666r120,0r0,212v40,-40,94,-62,156,-62v139,0,252,119,252,264v0,61,-24,131,-61,180v-80,106,-266,124,-357,13r0,59r-110,0","w":619},"c":{"d":"549,-162v-34,107,-125,178,-250,178v-146,0,-266,-120,-266,-267v0,-146,119,-265,265,-265v114,0,222,73,251,182r-135,0v-64,-133,-261,-68,-261,84v0,147,193,219,261,88r135,0","w":583},"d":{"d":"153,-252v0,88,66,159,148,159v81,0,147,-70,147,-156v0,-87,-66,-157,-148,-157v-78,0,-147,72,-147,154xm560,-666r0,666r-110,0r0,-60v-39,47,-107,76,-172,76v-133,0,-245,-120,-245,-265v0,-146,114,-267,251,-267v56,0,118,24,156,61r0,-211r120,0","w":618},"e":{"d":"438,-293v-17,-71,-71,-117,-140,-117v-69,0,-126,47,-142,117r282,0xm548,-196r-388,0v24,108,190,145,245,38r132,0v-31,102,-132,174,-240,174v-147,0,-264,-117,-264,-265v0,-150,118,-271,263,-271v160,0,290,148,252,324","w":586},"f":{"d":"51,0r0,-393r-42,0r0,-107r42,0v13,-125,78,-193,197,-178r0,116v-61,2,-74,12,-77,62r70,0r0,106r-70,0r0,394r-120,0","w":250},"g":{"d":"446,-250v0,-86,-67,-156,-148,-156v-81,0,-145,67,-145,153v0,91,65,161,149,161v79,0,144,-71,144,-158xm566,-92v7,176,-112,295,-274,295v-114,0,-211,-64,-251,-165r136,0v32,37,73,56,122,56v87,0,150,-64,155,-157v-45,55,-98,79,-165,79v-140,0,-256,-121,-256,-270v0,-144,115,-262,255,-262v70,0,121,25,162,78r0,-62r116,0r0,408","w":622},"h":{"d":"178,-465v131,-116,324,-20,324,183r0,282r-120,0r0,-255v0,-104,-32,-151,-103,-151v-68,0,-101,49,-101,153r0,253r-120,0r0,-666r120,0r0,201","w":558},"i":{"d":"58,-556r0,-110r120,0r0,110r-120,0xm58,0r0,-500r120,0r0,500r-120,0","w":237},"j":{"d":"65,-556r0,-110r120,0r0,110r-120,0xm65,-500r120,0r0,478v0,112,-68,187,-170,188r0,-116v44,-7,50,-16,50,-74r0,-476","w":242},"k":{"d":"58,0r0,-666r120,0r0,402r161,-236r138,0r-180,245r204,255r-150,0r-173,-234r0,234r-120,0","w":525},"l":{"d":"58,0r0,-666r120,0r0,666r-120,0","w":237},"m":{"d":"58,0r0,-500r110,0r0,42v63,-85,225,-75,277,20v37,-53,90,-78,161,-78v129,0,203,81,203,225r0,291r-120,0r0,-276v0,-86,-32,-130,-95,-130v-70,0,-101,48,-101,157r0,249r-120,0r0,-276v0,-84,-35,-130,-100,-130v-67,0,-95,46,-95,157r0,249r-120,0","w":866},"n":{"d":"282,-406v-80,0,-104,58,-104,169r0,237r-120,0r0,-500r112,0r0,43v42,-41,83,-59,136,-59v124,0,197,89,197,246r0,270r-120,0r0,-246v0,-108,-33,-160,-101,-160","w":560},"o":{"d":"153,-250v0,89,64,157,147,157v81,0,145,-68,145,-155v0,-86,-66,-158,-146,-158v-80,0,-146,71,-146,156xm33,-250v0,-146,120,-266,267,-266v147,0,265,118,265,266v0,148,-118,266,-266,266v-146,0,-266,-119,-266,-266","w":598},"p":{"d":"171,-249v0,87,64,156,145,156v81,0,146,-70,146,-156v0,-87,-64,-157,-144,-157v-83,0,-147,69,-147,157xm58,166r0,-666r110,0r0,58v40,-49,96,-74,164,-74v141,0,250,115,250,264v0,214,-251,358,-404,205r0,213r-120,0","w":616},"q":{"d":"153,-250v0,90,63,157,147,157v80,0,144,-69,144,-156v0,-87,-65,-157,-145,-157v-83,0,-146,68,-146,156xm448,-500r110,0r0,666r-120,0r0,-214v-38,43,-92,64,-153,64v-139,0,-252,-120,-252,-269v0,-144,115,-263,253,-263v70,0,121,25,162,80r0,-64","w":616},"r":{"d":"58,0r0,-500r110,0r0,44v39,-49,62,-61,119,-60r0,116v-74,3,-109,41,-109,120r0,280r-120,0","w":294},"s":{"d":"139,-157v12,46,31,64,66,64v31,0,54,-21,54,-50v0,-30,-18,-44,-85,-66v-57,-18,-68,-24,-94,-47v-30,-26,-45,-62,-45,-106v0,-86,74,-155,167,-155v89,0,160,66,163,153r-117,0v-3,-59,-93,-53,-94,-1v-7,32,52,47,86,57v85,25,139,59,139,151v0,96,-82,173,-183,173v-99,0,-175,-61,-179,-173r122,0","w":399},"t":{"d":"66,0r0,-393r-58,0r0,-107r58,0r0,-166r120,0r0,166r72,0r0,106r-72,0r0,394r-120,0","w":266},"u":{"d":"258,17v-121,0,-206,-82,-206,-223r0,-294r120,0r0,255v0,101,35,152,102,152v68,0,104,-51,104,-151r0,-256r120,0r0,500r-110,0r0,-49v-39,49,-73,66,-130,66","w":550},"v":{"d":"203,0r-203,-500r130,0r122,332r115,-332r132,0r-203,500r-93,0"},"w":{"d":"188,0r-180,-500r128,0r92,305r83,-305r95,0r82,305r93,-305r127,0r-182,500r-73,0r-95,-324r-97,324r-73,0","w":716},"x":{"d":"0,0r178,-258r-155,-242r134,0r92,151r91,-151r134,0r-154,242r179,258r-143,0r-107,-171r-106,171r-143,0"},"y":{"d":"97,166r92,-212r-183,-454r135,0r112,325r122,-325r137,0r-288,666r-127,0","w":516},"z":{"d":"18,0r0,-110r222,-283r-196,0r0,-110r340,0r0,110r-223,283r237,0r0,110r-380,0","w":416},"{":{"d":"135,-248v46,28,61,58,61,123r0,172v-3,55,30,65,98,63r0,74v-124,9,-191,-24,-191,-144v0,-92,30,-240,-55,-250r0,-75v87,-11,55,-163,55,-256v0,-116,67,-149,191,-140r0,73v-65,1,-98,8,-98,64r0,174v0,67,-13,93,-61,122","w":320},"|":{"d":"210,-666r79,0r0,841r-79,0r0,-841"},"}":{"d":"184,-248v-46,-28,-61,-58,-61,-123r0,-173v3,-55,-31,-65,-98,-63r0,-74v126,-9,191,24,191,144v0,92,-30,241,55,251r0,74v-87,13,-55,163,-55,257v0,115,-67,148,-191,139r0,-73v65,-1,98,-8,98,-64r0,-174v0,-66,13,-92,61,-121","w":320},"~":{"d":"141,-669v21,-15,197,79,217,72v33,0,58,-23,92,-84r47,49v-50,84,-86,115,-137,115v-30,12,-160,-72,-216,-72v-36,0,-58,21,-96,88r-46,-50v50,-86,87,-118,139,-118","w":499},"\u00a0":{"w":254}}});
