/*!
 * The following copyright notice may not be removed under any circumstances.
 * 
 * Copyright:
 * (C)1992 The Font Company Inc., ALL Rights Reserved
 */
Cufon.registerFont({"w":500,"face":{"font-family":"AvantGarde-Cnd","font-weight":400,"font-stretch":"normal","units-per-em":"1000","panose-1":"2 0 5 3 0 0 0 0 0 0","ascent":"800","descent":"-200","x-height":"10","bbox":"-36 -756 774 196","underline-thickness":"20","underline-position":"-120","stemh":"62","stemv":"70","unicode-range":"U+0020-U+007E"},"glyphs":{" ":{"w":199},"!":{"d":"108,-93r67,0r0,93r-67,0r0,-93xm108,-666r67,0r0,490r-67,0r0,-490","w":283},"\"":{"d":"247,-394r-35,0r-11,-272r57,0xm124,-394r-35,0r-11,-272r57,0","w":337},"#":{"d":"380,-413r-147,0r-23,147r148,0xm509,-266r-2,43r-112,0r-34,223r-44,0r34,-223r-147,0r-35,223r-43,0r34,-223r-113,0r1,-43r118,0r23,-147r-113,0r1,-43r118,0r32,-210r44,0r-32,210r148,0r32,-210r44,0r-32,210r106,0r-2,43r-111,0r-22,147r107,0","w":579},"$":{"d":"276,88r-53,0r0,-91v-95,-3,-159,-70,-166,-171r76,0v8,74,48,112,117,112v67,0,118,-51,118,-116v0,-140,-213,-144,-266,-217v-76,-104,-10,-266,121,-267r0,-94r53,0r0,94v90,12,149,77,146,173r-69,0v-4,-76,-38,-113,-107,-113v-62,0,-105,41,-105,99v0,56,26,87,126,125v95,36,175,98,175,196v0,98,-62,165,-166,179r0,91"},"%":{"d":"558,-148v0,-63,-32,-103,-83,-103v-52,0,-82,39,-82,106v0,66,31,106,84,106v50,0,81,-42,81,-109xm274,-530v0,-63,-33,-103,-83,-103v-53,0,-82,38,-82,105v0,67,31,107,83,107v50,0,82,-42,82,-109xm617,-149v0,100,-56,162,-143,162v-86,0,-140,-61,-140,-158v0,-96,54,-158,139,-158v86,0,144,62,144,154xm332,-531v0,99,-55,162,-142,162v-87,0,-141,-61,-141,-158v0,-96,55,-159,139,-159v87,0,144,62,144,155xm504,-666r60,0r-404,666r-59,0","w":666},"&":{"d":"362,-124r-152,-199v-71,54,-93,88,-93,144v0,69,50,124,113,124v43,0,87,-23,132,-69xm230,-410v51,-33,90,-81,90,-129v0,-44,-25,-71,-63,-71v-89,0,-76,136,-27,200xm406,-176v39,-54,83,-161,97,-234r65,25v-23,100,-63,188,-117,265r94,120r-87,0r-51,-68v-55,46,-115,80,-181,78v-108,-4,-179,-74,-179,-186v0,-100,47,-150,126,-198v-35,-52,-54,-103,-54,-151v0,-90,57,-151,140,-151v76,0,130,55,130,134v0,67,-42,128,-123,181","w":583},"'":{"d":"101,-394r-35,0r-11,-272r58,0","w":168},"(":{"d":"136,-246v0,147,76,302,186,367r0,65v-80,-21,-148,-111,-189,-185v-108,-193,-72,-439,69,-593v44,-47,70,-67,120,-84r0,63v-106,65,-186,210,-186,367","w":333},")":{"d":"196,-246v0,-145,-75,-302,-185,-367r0,-63v141,51,251,239,251,429v0,130,-45,248,-131,345v-49,56,-66,68,-120,88r0,-64v108,-68,185,-212,185,-368","w":333},"*":{"d":"225,-563r-1,-103r52,0r-1,104r97,-33r17,50r-100,30r62,83r-43,31r-59,-85r-60,84r-43,-31r63,-83r-99,-31r17,-50"},"+":{"d":"11,-365r215,0r0,-201r47,0r0,201r216,0r0,47r-215,0r0,201r-47,0r0,-201r-216,0r0,-47"},",":{"d":"121,-93r66,0r-105,202r-57,0","w":249},"-":{"d":"13,-296r201,0r0,60r-201,0r0,-60","w":228},".":{"d":"91,-93r67,0r0,93r-67,0r0,-93","w":249},"\/":{"d":"292,-666r56,0r-297,799r-56,0","w":350},"0":{"d":"399,-331v0,-129,-33,-283,-150,-283v-92,0,-149,109,-149,282v0,173,57,280,149,280v92,0,150,-108,150,-279xm472,-336v0,222,-80,346,-224,346v-145,0,-221,-120,-221,-349v0,-216,79,-337,221,-337v142,0,224,124,224,340"},"1":{"d":"136,-666r182,0r0,666r-70,0r0,-604r-112,0r0,-62"},"2":{"d":"445,-62r0,62r-398,0r0,-61r250,-267v57,-60,82,-112,82,-167v0,-73,-46,-119,-118,-119v-82,0,-127,54,-133,154r-72,0v4,-141,75,-216,204,-216v117,0,192,71,192,180v0,73,-34,143,-103,217r-204,217r300,0"},"3":{"d":"50,-492v-3,-122,88,-184,199,-184v110,0,183,68,183,171v0,67,-36,117,-100,136v80,18,131,89,131,184v0,118,-86,195,-217,195v-131,0,-211,-71,-210,-210r73,0v1,102,48,148,141,148v85,0,139,-52,139,-134v0,-104,-78,-156,-198,-145r0,-60v98,8,168,-27,168,-111v0,-69,-43,-112,-112,-112v-77,0,-117,39,-125,122r-72,0"},"4":{"d":"306,-216r0,-350r-198,350r198,0xm376,-666r0,450r92,0r0,62r-91,0r0,154r-70,0r0,-153r-275,0r0,-63r257,-450r87,0"},"5":{"d":"98,-666r313,0r0,62r-253,0r-24,201v35,-40,71,-56,125,-56v119,0,192,84,192,222v0,151,-85,247,-216,247v-123,0,-195,-73,-197,-200r72,0v5,87,51,138,127,138v86,0,140,-68,140,-176v0,-107,-44,-168,-122,-168v-69,0,-115,42,-132,120r-64,-15"},"6":{"d":"128,-218v0,100,53,166,134,166v78,0,127,-59,127,-150v0,-102,-50,-166,-130,-166v-78,0,-131,61,-131,150xm262,-614v-113,-2,-155,147,-154,271v33,-58,88,-88,161,-88v114,0,193,89,193,218v0,133,-84,223,-207,223v-138,0,-223,-126,-223,-335v0,-229,82,-351,234,-351v111,0,176,64,187,184r-73,0v-15,-86,-49,-122,-118,-122"},"7":{"d":"52,-666r396,0r0,56r-218,610r-82,0r222,-604r-318,0r0,-62"},"8":{"d":"105,-194v0,80,64,142,146,142v81,0,142,-60,142,-141v0,-81,-61,-141,-144,-141v-84,0,-144,59,-144,140xm135,-505v0,61,52,112,116,112v62,0,110,-49,110,-112v0,-62,-48,-109,-111,-109v-63,0,-115,49,-115,109xm333,-372v82,19,133,95,133,180v0,117,-90,202,-216,202v-128,0,-218,-84,-218,-206v0,-87,43,-144,132,-175v-63,-22,-102,-76,-102,-141v0,-93,81,-164,188,-164v106,0,184,70,184,165v0,68,-31,111,-101,139"},"9":{"d":"372,-447v0,-101,-54,-167,-135,-167v-78,0,-127,59,-127,151v0,102,50,166,130,166v78,0,132,-61,132,-150xm237,-52v116,0,155,-150,155,-272v-34,59,-89,89,-162,89v-114,0,-193,-89,-193,-218v0,-133,84,-223,208,-223v138,0,222,127,222,336v0,229,-81,350,-234,350v-111,0,-175,-63,-187,-184r73,0v15,87,49,122,118,122"},":":{"d":"91,-93r67,0r0,93r-67,0r0,-93xm91,-506r67,0r0,93r-67,0r0,-93","w":249},";":{"d":"121,-93r66,0r-105,202r-57,0xm121,-506r66,0r0,93r-66,0r0,-93","w":249},"<":{"d":"489,-571r0,50r-419,181r419,185r0,50r-478,-209r0,-51"},"=":{"d":"11,-294r478,0r0,47r-478,0r0,-47xm11,-437r478,0r0,47r-478,0r0,-47"},">":{"d":"11,-104r0,-51r418,-179r-418,-186r0,-51r478,210r0,51"},"?":{"d":"165,-93r68,0r0,93r-68,0r0,-93xm233,-162r-68,0v0,-113,-8,-149,78,-215v70,-54,81,-75,81,-127v0,-68,-42,-111,-108,-111v-78,0,-113,60,-107,155r-74,0v-8,-134,60,-215,182,-216v111,0,179,67,179,175v0,68,-20,108,-90,159v-89,65,-70,77,-73,180","w":433},"@":{"d":"326,-182v78,-1,122,-71,122,-177v0,-65,-35,-103,-95,-103v-75,0,-132,68,-132,158v0,73,43,122,105,122xm373,-23v107,0,164,-38,226,-109r45,0v-73,98,-134,142,-272,142v-201,0,-352,-145,-352,-341v0,-196,151,-346,348,-346v183,0,319,123,319,287v0,131,-81,243,-218,256v-34,3,-52,-25,-46,-61v-29,39,-63,57,-109,57v-86,0,-143,-65,-143,-162v0,-120,76,-208,179,-208v59,0,96,24,118,76r13,-63r44,0r-56,302v0,14,7,21,21,21v81,0,164,-112,164,-212v0,-148,-121,-258,-285,-258v-173,0,-307,135,-307,309v0,174,137,310,311,310","w":714},"A":{"d":"347,-266r-97,-339r-98,339r195,0xm201,-666r99,0r196,666r-72,0r-58,-204r-231,0r-60,204r-71,0"},"B":{"d":"402,-182v0,-86,-55,-128,-160,-128r-108,0r0,248r113,0v112,6,155,-38,155,-120xm376,-486v0,-91,-53,-125,-166,-118r-76,0r0,230r90,0v107,1,152,-32,152,-112xm476,-185v0,117,-78,185,-220,185r-192,0r0,-666v92,3,238,-9,293,17v55,26,92,86,92,154v0,80,-46,140,-117,152v95,6,144,66,144,158","w":512},"C":{"d":"279,-52v96,0,145,-71,149,-183r74,0v-5,155,-88,245,-226,245v-150,0,-241,-130,-241,-349v0,-211,92,-337,244,-337v136,0,215,92,222,258r-73,0v-13,-135,-59,-196,-152,-196v-106,0,-167,102,-167,276v0,143,36,286,170,286","w":536},"D":{"d":"134,-604r0,541v72,-2,194,8,219,-20v61,-41,98,-135,98,-253v0,-112,-37,-202,-91,-242v-40,-30,-146,-25,-226,-26xm64,-666v107,3,265,-9,324,27v84,51,136,156,136,303v0,162,-60,286,-171,326v-57,21,-204,7,-289,10r0,-666","w":560},"E":{"d":"399,-62r0,62r-334,0r0,-666r334,0r0,62r-264,0r0,224r254,0r0,62r-254,0r0,256r264,0","w":434},"F":{"d":"64,-666r314,0r0,62r-243,0r0,224r233,0r0,62r-233,0r0,318r-71,0r0,-666","w":399},"G":{"d":"235,-332r301,0v10,214,-56,342,-240,342v-164,0,-261,-124,-261,-335v0,-220,98,-351,261,-351v126,0,206,79,221,217r-72,0v-22,-106,-69,-155,-152,-155v-115,0,-184,108,-184,283v0,180,68,279,191,279v104,0,159,-74,162,-217r-227,0r0,-63","w":569},"H":{"d":"421,-666r70,0r0,666r-70,0r0,-317r-286,0r0,317r-70,0r0,-666r70,0r0,286r286,0r0,-286","w":556},"I":{"d":"64,-666r70,0r0,666r-70,0r0,-666","w":199},"J":{"d":"264,-666r70,0r0,467v-3,114,-6,124,-40,160v-31,32,-75,49,-128,49v-101,0,-161,-62,-164,-173r73,0v2,69,36,111,95,111v76,0,94,-69,94,-159r0,-455","w":397},"K":{"d":"380,-666r85,0r-181,248r215,418r-79,0r-182,-355r-104,141r0,214r-70,0r0,-666r70,0r0,348","w":503},"L":{"d":"64,-666r70,0r0,604r264,0r0,62r-334,0r0,-666","w":400},"M":{"d":"64,-666r109,0r156,552r156,-552r109,0r0,666r-70,0r0,-562r-165,562r-59,0r-166,-562r0,562r-70,0r0,-666","w":659},"N":{"d":"64,-666r89,0r267,528r0,-528r70,0r0,666r-74,0r-282,-555r0,555r-70,0r0,-666","w":555},"O":{"d":"285,-52v130,0,176,-139,176,-277v0,-138,-47,-285,-176,-285v-105,0,-176,115,-176,284v0,137,43,278,176,278xm534,-333v0,211,-96,343,-249,343v-153,0,-250,-132,-250,-344v0,-208,99,-342,251,-342v152,0,248,133,248,343","w":570},"P":{"d":"394,-468v0,-93,-48,-136,-148,-136r-112,0r0,273r110,0v114,6,150,-43,150,-137xm468,-470v0,141,-70,211,-236,202r-98,0r0,268r-70,0r0,-666r174,0v162,-6,230,63,230,196","w":483},"Q":{"d":"343,-65v-60,-58,-108,-102,-196,-77v43,79,105,110,196,77xm124,-205v120,-38,209,19,272,97v43,-50,63,-143,63,-221v0,-132,-47,-284,-175,-285v-102,0,-175,117,-175,282v0,39,5,80,15,127xm532,-337v0,112,-24,206,-79,272v31,8,60,9,98,7r0,64v-62,10,-88,2,-150,-26v-205,96,-366,-49,-366,-310v0,-214,97,-346,252,-346v149,0,245,133,245,339","w":566},"R":{"d":"398,-468v0,-91,-49,-136,-154,-136r-110,0r0,604r-70,0r0,-666r191,0v145,-6,216,72,216,195v0,111,-61,182,-167,197r186,274r-85,0r-216,-329v135,9,209,-29,209,-139","w":504},"S":{"d":"423,-477r-71,0v-8,-102,-40,-137,-124,-137v-73,0,-119,42,-119,110v0,66,60,99,126,119v103,31,131,48,160,80v31,33,48,77,48,125v0,116,-83,190,-211,190v-132,0,-207,-77,-208,-214r72,0v4,102,50,152,140,152v81,0,133,-48,133,-124v1,-83,-74,-113,-145,-135v-79,-25,-121,-48,-148,-77v-26,-28,-41,-69,-41,-111v0,-106,79,-178,195,-178v122,0,198,65,193,200","w":466},"T":{"d":"396,-666r0,62r-161,0r0,604r-70,0r0,-604r-162,0r0,-62r393,0","w":400},"U":{"d":"264,-52v97,0,132,-64,132,-177r0,-437r70,0r0,452v6,159,-64,224,-202,224v-135,0,-202,-68,-202,-224r0,-452r70,0r0,437v-5,132,37,177,132,177","w":528},"V":{"d":"431,-666r74,0r-198,666r-101,0r-196,-666r74,0r173,601","w":516},"W":{"d":"8,-666r73,0r156,562r106,-562r94,0r107,562r155,-562r75,0r-192,666r-83,0r-109,-552r-107,552r-83,0","w":782},"X":{"d":"355,-666r78,0r-157,317r183,349r-78,0r-149,-287r-147,287r-78,0r183,-349r-159,-317r78,0r124,252","w":466},"Y":{"d":"399,-666r77,0r-200,416r0,250r-70,0r0,-250r-200,-416r78,0r157,336","w":483},"Z":{"d":"29,-666r357,0r0,52r-287,552r297,0r0,62r-382,0r0,-48r287,-556r-272,0r0,-62","w":409},"[":{"d":"121,-101v-2,118,45,174,129,212r0,75v-112,-33,-200,-125,-200,-274r0,-312v-3,-109,42,-175,101,-225v39,-33,55,-41,99,-51r0,74v-87,38,-129,103,-129,202r0,299","w":333},"\\":{"d":"51,-666r297,799r-56,0r-296,-799r55,0","w":350},"]":{"d":"211,-389v2,-117,-45,-176,-129,-212r0,-75v113,33,201,125,201,275r0,311v3,111,-42,174,-102,225v-38,33,-55,41,-99,51r0,-74v88,-38,129,-103,129,-201r0,-300","w":333},"^":{"d":"84,-384r-54,0r191,-282r57,0r192,282r-55,0r-166,-241"},"_":{"d":"500,79r0,53r-500,0r0,-53r500,0"},"`":{"d":"66,-662r35,-53r172,110r-33,52","w":340},"a":{"d":"231,-51v89,1,121,-92,121,-207v0,-130,-41,-197,-122,-197v-88,0,-125,88,-125,198v0,134,44,206,126,206xm352,-506r66,0r0,506r-66,0r0,-66v-38,56,-74,76,-131,76v-115,0,-186,-100,-186,-265v0,-161,71,-261,184,-261v61,0,104,25,133,78r0,-68","w":468},"b":{"d":"116,-249v0,122,36,198,113,198v80,0,126,-77,126,-210v0,-123,-45,-194,-123,-194v-79,0,-116,66,-116,206xm50,-666r66,0r0,218v25,-45,68,-68,125,-68v114,0,184,100,184,263v0,163,-72,263,-189,263v-61,0,-106,-28,-120,-78r0,68r-66,0r0,-666","w":461},"c":{"d":"328,-175r70,0v-4,116,-69,185,-172,185v-120,0,-191,-98,-191,-266v0,-162,73,-260,193,-260v103,0,169,75,168,190r-69,0v-7,-88,-40,-129,-105,-129v-73,0,-117,72,-117,194v0,135,42,210,118,210v63,0,97,-40,105,-124","w":432},"d":{"d":"226,-51v117,0,145,-203,104,-330v-15,-46,-54,-74,-102,-74v-77,0,-123,76,-123,204v0,127,45,200,121,200xm344,-666r66,0r0,666r-63,0r0,-69v-31,55,-71,79,-131,79v-110,0,-181,-99,-181,-257v0,-167,72,-269,189,-269v55,0,91,21,120,68r0,-218","w":460},"e":{"d":"328,-292v-3,-104,-43,-162,-110,-162v-63,0,-109,67,-111,162r221,0xm330,-176r67,0v-10,117,-76,186,-177,186v-112,0,-185,-100,-185,-256v0,-162,75,-269,188,-269v117,0,180,112,174,280r-292,0v7,122,47,184,118,184v60,0,98,-44,107,-125","w":433},"f":{"d":"224,-506r0,56r-84,0r0,450r-66,0r0,-450r-70,0r0,-56r70,0v-12,-119,32,-169,162,-160r0,56v-61,-2,-101,7,-96,57r0,47r84,0","w":233},"g":{"d":"230,-455v-89,0,-126,110,-125,212v0,122,46,192,124,192v80,0,121,-68,121,-199v0,-142,-37,-205,-120,-205xm417,30v6,116,-79,166,-188,166v-118,0,-179,-55,-186,-167r68,0v7,76,40,106,117,106v93,0,122,-33,122,-135r0,-63v-27,48,-73,73,-133,73v-114,0,-182,-95,-182,-254v0,-168,74,-272,191,-272v57,0,100,25,124,74r0,-64r67,0r0,536","w":465},"h":{"d":"234,-455v-81,0,-118,53,-118,152r0,303r-66,0r0,-666r66,0r0,216v25,-46,64,-66,126,-66v100,0,151,55,151,163r0,353r-66,0r0,-303v-1,-118,-21,-152,-93,-152","w":441},"i":{"d":"50,-666r66,0r0,85r-66,0r0,-85xm50,-506r66,0r0,506r-66,0r0,-506","w":166},"j":{"d":"77,-666r67,0r0,85r-67,0r0,-85xm77,-506r67,0r0,538v0,93,-8,117,-39,140v-32,24,-92,29,-141,19r0,-59v81,8,113,6,113,-100r0,-538","w":192},"k":{"d":"289,-506r81,0r-127,177r146,329r-72,0r-119,-272r-82,112r0,160r-66,0r0,-666r66,0r0,404","w":393},"l":{"d":"50,-666r66,0r0,666r-66,0r0,-666","w":166},"m":{"d":"508,-516v93,0,148,59,148,166r0,350r-66,0r0,-305v0,-116,-21,-150,-92,-150v-75,0,-112,50,-112,150r0,305r-66,0r0,-350v-1,-66,-35,-105,-92,-105v-73,0,-112,52,-112,150r0,305r-66,0r0,-506r66,0r0,66v16,-49,57,-76,116,-76v66,0,109,24,135,76v34,-51,80,-76,141,-76","w":704},"n":{"d":"233,-455v-81,0,-117,56,-117,162r0,293r-66,0r0,-506r66,0r0,66v19,-51,60,-76,125,-76v98,0,153,55,153,170r0,346r-66,0r0,-293v0,-130,-19,-162,-95,-162","w":442},"o":{"d":"360,-254v0,-130,-44,-201,-127,-201v-83,0,-128,71,-128,202v0,131,45,202,128,202v83,0,127,-70,127,-203xm430,-254v0,166,-74,264,-197,264v-123,0,-198,-98,-198,-263v0,-164,75,-263,198,-263v123,0,197,99,197,262","w":466},"p":{"d":"233,-455v-101,0,-120,93,-119,222v0,123,38,182,115,182v80,0,127,-77,127,-208v0,-122,-47,-196,-123,-196xm50,-506r63,0r0,66v29,-52,70,-76,130,-76v114,0,183,97,183,255v0,173,-68,271,-188,271v-56,0,-96,-21,-122,-66r0,243r-66,0r0,-693","w":462},"q":{"d":"231,-455v-81,0,-126,74,-126,207v0,127,44,197,121,197v81,0,125,-70,125,-201v0,-137,-39,-203,-120,-203xm351,-506r63,0r0,693r-66,0r0,-250v-29,51,-69,73,-131,73v-114,0,-182,-95,-182,-256v0,-169,72,-270,190,-270v63,0,104,25,126,76r0,-66","w":464},"r":{"d":"258,-454v-107,1,-142,56,-142,180r0,274r-66,0r0,-506r60,0r0,77v26,-70,67,-93,148,-90r0,65","w":263},"s":{"d":"385,-359r-70,0v-6,-66,-39,-96,-105,-96v-55,0,-94,31,-94,74v0,44,29,69,124,90v90,20,157,66,157,143v0,95,-73,158,-182,158v-105,0,-171,-58,-179,-160r69,0v8,63,50,99,111,99v62,0,110,-38,110,-85v0,-50,-24,-68,-122,-91v-63,-15,-82,-23,-110,-44v-32,-25,-48,-59,-48,-101v0,-86,68,-144,169,-144v103,0,161,54,170,157","w":433},"t":{"d":"93,-666r67,0r0,160r92,0r0,56r-92,0r0,450r-66,0r0,-450r-73,0r0,-56r72,0r0,-160","w":266},"u":{"d":"201,10v-100,0,-153,-50,-153,-169r0,-347r66,0r0,308v0,112,23,147,97,147v76,0,118,-53,118,-147r0,-308r67,0r0,506r-64,0r0,-66v-22,53,-63,76,-131,76","w":446},"v":{"d":"8,-506r71,0r121,426r121,-426r70,0r-148,506r-85,0","w":399},"w":{"d":"653,-506r-149,506r-83,0r-88,-406r-90,406r-83,0r-147,-506r73,0r114,426r93,-426r80,0r94,426r113,-426r73,0","w":666},"x":{"d":"239,-269r157,269r-76,0r-119,-210r-121,210r-76,0r156,-269r-142,-237r80,0r101,183r102,-183r79,0","w":400},"y":{"d":"152,4r-150,-510r69,0r116,401r123,-401r71,0r-218,692r-72,0","w":383},"z":{"d":"21,-506r341,0r0,60r-275,390r281,0r0,56r-364,0r0,-49r278,-401r-261,0r0,-56","w":373},"{":{"d":"82,-248v90,32,61,175,61,288v0,82,18,102,95,103r0,40v-105,3,-147,-35,-147,-148v0,-98,32,-248,-57,-263r0,-40v43,-12,57,-37,57,-96r0,-183v-1,-99,47,-139,147,-135r0,40v-77,3,-95,22,-95,100v0,114,33,263,-61,294","w":258},"|":{"d":"226,-666r46,0r0,837r-46,0r0,-837"},"}":{"d":"175,-250v-90,-32,-61,-175,-61,-288v0,-83,-18,-102,-95,-103r0,-41v105,-3,147,35,147,148v0,98,-31,249,57,265r0,39v-91,18,-57,177,-57,279v0,98,-49,141,-147,134r0,-40v77,-3,95,-21,95,-100v0,-114,-32,-262,61,-293","w":258},"~":{"d":"463,-710r31,25v-45,82,-84,117,-132,117v-30,9,-166,-79,-224,-79v-36,0,-62,23,-103,92r-30,-26v49,-82,85,-112,130,-112v28,0,45,6,129,44v61,28,81,35,96,35v36,0,68,-29,103,-96"},"\u00a0":{"w":199}}});
